tree
version=v3
num_class=1
num_tree_per_iteration=1
label_index=0
max_feature_idx=39
objective=regression
feature_names=Column_0 Column_1 Column_2 Column_3 Column_4 Column_5 Column_6 Column_7 Column_8 Column_9 Column_10 Column_11 Column_12 Column_13 Column_14 Column_15 Column_16 Column_17 Column_18 Column_19 Column_20 Column_21 Column_22 Column_23 Column_24 Column_25 Column_26 Column_27 Column_28 Column_29 Column_30 Column_31 Column_32 Column_33 Column_34 Column_35 Column_36 Column_37 Column_38 Column_39
feature_infos=[538:2095] [0:72] [492:2693] [0:178] [0:66] [662:3109] [15:159] [0:54] [518:1597] [0:34] [47:124] [0:86] [322:1343] [0:165] [16:98] [540:1242] [6:146] [1485:2288] [0:67] [1843:3705] [5:38] [994:1781] [0:77] [0:168] [1199:3447] [23:75] [2:139] [1057:2667] [0:55] [773:1983] [870:3099] [3:138] [0:59] [1014:1341] [68:171] [3:50] [1363:2105] [0:81] [254:965] [0:46]
tree_sizes=2714 2813 2821 2829 2821 2841 2807 2819 2836 2829

Tree=0
num_leaves=31
num_cat=0
split_feature=30 2 30 24 33 0 24 19 19 36 38 38 33 24 0 38 0 5 36 36 38 5 15 19 5 12 30 5 38 38
split_gain=104535 11076.2 6216.05 10325 6139.95 2659.82 2592.31 2143.33 1978.23 1543.74 1347.96 839.445 743.607 2088.86 651.618 721.76 649.888 583.611 550.139 361.891 682.899 316.286 302.365 248.308 218.938 216.527 211.718 517.094 592.545 261.978
threshold=1872.5000000000002 1619.5000000000002 1429.5000000000002 2465.5000000000005 1173.5000000000002 1611.5000000000002 2459.5000000000005 2672.5000000000005 2844.5000000000005 1685.5000000000002 723.50000000000011 791.50000000000011 1221.5000000000002 2484.5000000000005 817.50000000000011 842.50000000000011 887.50000000000011 2146.5000000000005 1671.5000000000002 1618.5000000000002 422.50000000000006 1388.5000000000002 724.50000000000011 2585.5000000000005 1793.5000000000002 708.50000000000011 1036.5000000000002 1165.5000000000002 495.50000000000006 362.50000000000006
decision_type=2 2 2 2 2 2 2 2 2 2 2 2 2 2 2 2 2 2 2 2 2 2 2 2 2 2 2 2 2 2
left_child=1 2 7 9 6 8 -2 12 18 16 17 -8 19 -14 -5 24 -4 -3 22 20 -1 -20 -6 -19 -16 -7 -21 28 -28 -29
right_child=4 10 3 14 5 25 11 -9 -10 -11 -12 -13 13 -15 15 -17 -18 23 21 26 -22 -23 -24 -25 -26 -27 27 29 -30 -31
leaf_value=2.1560884177760604 2.2904970784753211 1.9330075369099884 1.9862352943671548 1.9857574122374442 2.286452363983384 2.4949721168010228 1.8927265243037334 1.9699195052676737 2.5860257013188894 2.3857684969260426 2.3896900639172878 2.290972138735532 2.3744885994581515 1.8131032856902403 1.8168059770162379 2.24097212454395 2.2111232707954702 2.0866342391921529 2.4857495127254996 1.7969573559103187 1.8430157352396714 2.3905705085158466 2.4311360501993162 2.1909721387355319 2.1149721291987889 2.1909721387355319 1.8963334432128407 2.0709721387355318 2.3633859211512509 1.8142390705237041
leaf_weight=86 842 226 190 326 354 25 285 1007 1213 442 156 65 91 244 1649 42 397 1314 1168 5547 367 498 244 276 25 373 429 40 29 6275
leaf_count=86 842 226 190 326 354 25 285 1007 1213 442 156 65 91 244 1649 42 397 1314 1168 5547 367 498 244 276 25 373 429 40 29 6275
internal_value=1.98997 1.88314 1.85738 1.98632 2.39389 2.45495 2.19542 1.82933 2.48298 2.24462 2.1076 1.96669 1.81853 1.9656 1.85615 1.83153 2.13833 2.08337 2.42777 1.81467 1.90245 2.4573 2.34549 2.10475 1.82126 2.21007 1.81144 1.82331 1.92591 1.81587
internal_weight=0 19158 17186 3071 5067 3875 1192 14115 3477 1029 1972 350 13108 335 2042 1716 587 1816 2264 12773 453 1666 598 1590 1674 398 12320 6773 458 6315
internal_count=24225 19158 17186 3071 5067 3875 1192 14115 3477 1029 1972 350 13108 335 2042 1716 587 1816 2264 12773 453 1666 598 1590 1674 398 12320 6773 458 6315
is_linear=0
shrinkage=1


Tree=1
num_leaves=31
num_cat=0
split_feature=30 35 33 26 33 33 34 19 0 21 19 17 36 38 38 5 38 15 36 33 8 6 38 5 19 5 30 38 16 17
split_gain=84697.7 9125.5 4529.58 2868.32 3660.37 2545.63 2523.93 2378.4 2166.14 1840.9 1599.44 1496.39 1325.19 1276.49 753.08 744.879 640.424 450.915 439.928 370.276 312.314 284.277 263.67 256.306 240.666 239.136 223.662 837.008 510.54 1526.21
threshold=1885.5000000000002 25.500000000000004 1173.5000000000002 68.500000000000014 1163.5000000000002 1223.5000000000002 129.50000000000003 2672.5000000000005 1611.5000000000002 1503.5000000000002 2844.5000000000005 1683.5000000000002 1737.5000000000002 516.50000000000011 572.50000000000011 1781.5000000000002 733.50000000000011 804.50000000000011 1667.5000000000002 1257.5000000000002 860.50000000000011 106.50000000000001 469.50000000000006 801.50000000000011 2365.5000000000005 1388.5000000000002 1036.5000000000002 351.50000000000006 40.500000000000007 1755.5000000000002
decision_type=2 2 2 2 2 2 2 2 2 2 2 2 2 2 2 2 2 2 2 2 2 2 2 2 2 2 2 2 2 2
left_child=1 5 9 4 12 7 24 11 10 21 18 -1 20 -5 -6 -9 23 19 -4 -15 -3 -2 -17 -13 -7 -20 -25 -28 29 -29
right_child=2 3 8 13 14 6 -8 15 -10 -11 -12 16 -14 17 -16 22 -18 -19 25 -21 -22 -23 -24 26 -26 -27 27 28 -30 -31
leaf_value=0.080915621571875151 0.26059591793994263 -0.0083080666307051698 0.31779863616471649 0.080147435179187196 0.17052301439328557 0.36080765650735652 -0.12926039724122912 -0.032468565551832793 0.19813200932005492 -0.080893246763445475 0.53743048636381296 0.20004780650138856 -0.14191264016127372 -0.16390158434639851 0.35640969400212136 0.14892180310907188 0.26469824810822806 -0.03139042259099778 0.44408314311365515 0.25134045319123705 0.095670672907656559 -0.081229964733123786 0.53377346396446235 -0.1735563690550605 0.04372493955824111 0.360525423101692 0.14639058920244377 0.27216396103001605 -0.16857903927141979 -0.12908811451059884
leaf_weight=271 907 423 558 450 429 211 252 818 397 203 1210 20 415 899 443 162 36 445 1202 22 911 25 20 5487 27 479 96 99 5077 2231
leaf_count=271 907 423 558 450 429 211 252 818 397 203 1210 20 415 899 443 162 36 445 1202 22 911 25 20 5487 27 479 96 99 5077 2231
internal_value=0 -0.0951293 0.36753 0.0306674 0.0975932 -0.132825 0.0913008 -0.140496 0.419335 0.19199 0.444796 -0.151665 0.0141498 -0.0659253 0.264959 0.00824151 -0.156496 -0.114046 0.394735 -0.153983 0.0626999 0.251427 0.191213 -0.157662 0.324836 0.420273 -0.158212 -0.146991 -0.150793 -0.112039
internal_weight=0 19244 4981 4437 2621 14807 490 14317 3846 1135 3449 13317 1749 1816 872 1000 13046 1366 2239 921 1334 932 182 13010 238 1681 12990 7503 7407 2330
internal_count=24225 19244 4981 4437 2621 14807 490 14317 3846 1135 3449 13317 1749 1816 872 1000 13046 1366 2239 921 1334 932 182 13010 238 1681 12990 7503 7407 2330
is_linear=0
shrinkage=0.1


Tree=2
num_leaves=31
num_cat=0
split_feature=30 2 33 30 24 24 10 19 30 33 38 38 8 33 16 5 0 5 36 0 38 33 30 36 6 19 2 12 34 15
split_gain=68686.8 7410.53 4371.78 3937.14 6865.22 2026.89 1742.23 1412.8 1331.78 1224.19 867.392 604.137 513.251 476.302 1408.01 418.37 346.729 333.598 256.405 697.235 273.004 255.247 213.596 205.815 248.152 160.512 156.407 135.015 256.045 131.227
threshold=1862.5000000000002 1629.5000000000002 1173.5000000000002 1429.5000000000002 2508.5000000000005 2459.5000000000005 97.500000000000014 2672.5000000000005 2580.5000000000005 1198.5000000000002 696.50000000000011 791.50000000000011 850.50000000000011 1221.5000000000002 66.500000000000014 1193.5000000000002 960.50000000000011 2146.5000000000005 1654.5000000000002 1180.5000000000002 511.00000000000006 1249.5000000000002 2023.5000000000002 1622.5000000000002 90.500000000000014 2585.5000000000005 1397.5000000000002 413.50000000000006 112.50000000000001 775.50000000000011
decision_type=2 2 2 2 2 2 2 2 2 2 2 2 2 2 2 2 2 2 2 2 2 2 2 2 2 2 2 2 2 2
left_child=1 3 5 7 9 -2 8 13 16 12 17 -7 -5 18 -15 -6 -4 -3 19 20 -1 26 -18 24 -24 -19 -17 28 -20 -28
right_child=2 10 6 4 15 11 -8 -9 -10 -11 -12 -13 -14 14 -16 21 22 25 27 -21 -22 -23 23 -25 -26 -27 29 -29 -30 -31
leaf_value=-0.056660835752263661 0.24553716397094291 -0.041258006022103784 0.25200687861695309 0.0011724158034366393 0.0012464262892995827 -0.088428067151043163 0.17084599741342563 -0.016539217272386105 0.48776895667772541 0.32884506527508534 0.32505624232753633 0.24641981858473561 0.18282469011805386 0.32456719108011534 -0.14299515144478889 -0.151747716960246 0.31991027024970659 0.079751150811301824 0.29472200632095341 0.17373612319881268 -0.16231894780798717 0.14846795489711148 0.49261269481093795 0.40606571054703056 0.24850437893317295 0.16536823352480118 0.18984193801879884 -0.14751379874408385 -0.13530326657825048 -0.082640427816659215
leaf_weight=410 873 206 283 257 257 315 373 1010 1127 428 155 65 394 87 248 1468 609 1308 20 88 606 31 54 1268 182 263 20 11623 45 152
leaf_count=410 873 206 283 257 257 315 373 1010 1127 428 155 65 394 87 248 1468 609 1308 20 88 606 31 54 1268 182 263 20 11623 45 152
internal_value=0 -0.0874828 0.324106 -0.108406 -0.00449863 0.161625 0.376362 -0.130508 0.398121 0.197479 0.0981837 -0.0311515 0.111113 -0.139276 -0.0215685 -0.117535 0.355953 0.0783946 -0.142359 -0.096293 -0.119681 -0.135803 0.369875 0.390107 0.30436 0.0940842 -0.141177 -0.14671 -0.0029878 -0.0509564
internal_weight=0 19076 5149 17144 3007 1253 3896 14137 3523 1079 1932 380 651 13127 335 1928 2396 1777 12792 1104 1016 1671 2113 1504 236 1571 1640 11688 65 172
internal_count=24225 19076 5149 17144 3007 1253 3896 14137 3523 1079 1932 380 651 13127 335 1928 2396 1777 12792 1104 1016 1671 2113 1504 236 1571 1640 11688 65 172
is_linear=0
shrinkage=0.1


Tree=3
num_leaves=31
num_cat=0
split_feature=30 2 33 30 24 24 0 19 30 36 38 38 8 33 26 5 0 5 36 0 38 33 30 12 36 27 19 2 15 38
split_gain=55636.3 6002.53 3541.14 3189.08 5560.83 1641.78 1417.07 1144.37 1065.56 1002.02 702.587 489.351 401.525 386.134 1307.38 338.879 287.435 271.033 209.844 564.76 221.133 207.093 182.876 155.356 134.989 211.404 133.291 132.839 133.593 125.012
threshold=1862.5000000000002 1629.5000000000002 1173.5000000000002 1429.5000000000002 2508.5000000000005 2459.5000000000005 1611.5000000000002 2672.5000000000005 2580.5000000000005 1685.5000000000002 696.50000000000011 791.50000000000011 824.50000000000011 1220.5000000000002 63.500000000000007 1193.5000000000002 938.50000000000011 2140.5000000000005 1654.5000000000002 1180.5000000000002 511.00000000000006 1250.5000000000002 2023.5000000000002 708.50000000000011 1622.5000000000002 1523.5000000000002 2585.5000000000005 1397.5000000000002 769.50000000000011 446.50000000000006
decision_type=2 2 2 2 2 2 2 2 2 2 2 2 2 2 2 2 2 2 2 2 2 2 2 2 2 2 2 2 2 2
left_child=1 3 5 7 9 -2 8 13 16 12 17 -7 -5 18 -15 -6 -4 -3 19 20 -1 27 -18 -8 25 -24 -19 -17 -29 -20
right_child=2 10 6 4 15 11 23 -9 -10 -11 -12 -13 -14 14 -16 21 22 26 29 -21 -22 -23 24 -25 -26 -27 -28 28 -30 -31
leaf_value=-0.050994752618234329 0.22098345770185893 -0.038801989515325923 0.21624755935143619 -0.0039743599581940113 0.0011217834797582738 -0.079585259457429253 0.40125829172134397 -0.014885295432171609 0.43901784286972068 0.29341871495699995 0.29255061103451635 0.22177782865671014 0.15960165877885457 0.29984682247202887 -0.13067791784462865 -0.13660496021712859 0.28817813802723541 0.071427274054920831 -0.13837797214485281 0.15636251189491968 -0.14608705330996624 0.1474481565611703 0.21565590366240472 0.14375589983712572 0.36453869175033166 0.42714552178102383 0.14918689624318537 0.19894378125667572 -0.075776770113447273 -0.11466021246333778
leaf_weight=410 873 201 236 242 257 315 25 1010 1129 442 155 65 395 93 292 1469 647 1311 8647 88 606 28 155 373 1263 68 265 20 154 2991
leaf_count=410 873 201 236 242 257 315 25 1010 1129 442 155 65 395 93 292 1469 647 1311 8647 88 606 28 155 373 1263 68 265 20 154 2991
internal_value=0 -0.0787345 0.291695 -0.0975654 -0.00404877 0.145463 0.338725 -0.117457 0.359069 0.177731 0.0883653 -0.0280363 0.0974582 -0.125349 -0.026681 -0.105781 0.320967 0.0705551 -0.12833 -0.0866637 -0.107713 -0.122223 0.332553 0.159931 0.351874 0.280146 0.0845023 -0.126819 -0.0441997 -0.132282
internal_weight=0 19076 5149 17144 3007 1253 3896 14137 3498 1079 1932 380 637 13127 385 1928 2369 1777 12742 1104 1016 1671 2133 398 1486 223 1576 1643 174 11638
internal_count=24225 19076 5149 17144 3007 1253 3896 14137 3498 1079 1932 380 637 13127 385 1928 2369 1777 12742 1104 1016 1671 2133 398 1486 223 1576 1643 174 11638
is_linear=0
shrinkage=0.1


Tree=4
num_leaves=31
num_cat=0
split_feature=30 2 33 30 24 24 0 19 30 33 38 38 8 33 24 5 15 5 36 30 30 21 38 38 12 13 4 33 12 12
split_gain=45065.4 4862.05 2868.32 2583.16 4504.27 1329.84 1147.83 926.939 863.104 832.229 569.096 396.374 339.388 312.769 1061.94 274.492 234.88 219.669 217.328 192.309 174.852 868.614 824.724 329.286 309.784 273.436 191.302 167.746 138.501 136.952
threshold=1862.5000000000002 1629.5000000000002 1173.5000000000002 1429.5000000000002 2508.5000000000005 2459.5000000000005 1611.5000000000002 2672.5000000000005 2580.5000000000005 1199.5000000000002 696.50000000000011 791.50000000000011 850.50000000000011 1220.5000000000002 2484.5000000000005 1193.5000000000002 661.50000000000011 2146.5000000000005 1693.5000000000002 2062.5000000000005 1106.5000000000002 1302.5000000000002 500.50000000000006 371.50000000000006 572.50000000000011 25.500000000000004 36.500000000000007 1250.5000000000002 433.50000000000006 749.50000000000011
decision_type=2 2 2 2 2 2 2 2 2 2 2 2 2 2 2 2 2 2 2 2 2 2 2 2 2 2 2 2 2 2
left_child=1 3 5 7 9 -2 8 13 16 12 17 -7 -5 20 -15 -6 18 -3 -4 -18 -1 22 24 -23 -22 -24 28 -17 -25 -26
right_child=2 10 6 4 15 11 -8 -9 -10 -11 -12 -13 -14 14 -16 27 19 -19 -20 -21 21 23 25 26 29 -27 -28 -29 -30 -31
leaf_value=-0.12403704377079311 0.19888510933446724 -0.033595047153315502 0.18232362078082176 0.0001854732821075833 0.0010096052349889326 -0.071626734141969961 0.14393760419670662 -0.013396766262663768 0.39511606539108779 0.27018192804514085 0.2632955546532908 0.19960004843198337 0.14724776154712177 0.26216112535024427 -0.12039794247183536 -0.11413699532119298 0.2607836931249663 0.076231325571890635 0.30623400871418727 0.33022917628225401 0.112951199562995 0.098588259623084276 0.35074473092722341 0.082593286782503134 -0.13031364071577398 0.00011632899443308513 -0.033577352629499395 0.13270334218229568 -0.12637271646812176 0.070231422856450079
leaf_weight=8320 873 206 341 257 257 315 398 1010 1129 419 155 65 403 97 288 1643 601 1571 242 1185 91 71 86 32 229 30 247 28 3596 40
leaf_count=8320 873 206 341 257 257 315 398 1010 1129 419 155 65 403 97 288 1643 601 1571 242 1185 91 71 86 32 229 30 247 28 3596 40
internal_value=0 -0.070861 0.262526 -0.0878088 -0.00364389 0.130916 0.304853 -0.105711 0.323162 0.159958 0.0795288 -0.0252327 0.0899826 -0.112814 -0.0240129 -0.0952033 0.28887 0.0634996 0.233758 0.30686 -0.115497 -0.0994287 0.0281797 -0.114822 -0.0465389 0.260065 -0.118732 -0.110001 -0.12453 -0.100493
internal_weight=0 19076 5149 17144 3007 1253 3896 14137 3498 1079 1932 380 660 13127 385 1928 2369 1777 583 1786 12742 4422 476 3946 360 116 3875 1671 3628 269
internal_count=24225 19076 5149 17144 3007 1253 3896 14137 3498 1079 1932 380 660 13127 385 1928 2369 1777 583 1786 12742 4422 476 3946 360 116 3875 1671 3628 269
is_linear=0
shrinkage=0.1


Tree=5
num_leaves=31
num_cat=0
split_feature=30 35 33 8 33 10 33 24 24 38 30 17 36 19 5 33 34 17 9 17 29 15 0 38 19 30 24 38 30 12
split_gain=36514.2 4021 1932.79 1539.33 959.525 946.688 824.972 851.165 804.027 736.017 688.918 628.225 570.774 569.835 547.063 633.005 511.227 424.917 317.415 295.614 240.364 218.413 204.085 171.209 165.314 142.852 125.887 1621.67 511.543 240.088
threshold=1885.5000000000002 24.500000000000004 1173.5000000000002 1217.5000000000002 1237.5000000000002 97.500000000000014 1223.5000000000002 2439.5000000000005 2459.5000000000005 602.50000000000011 2580.5000000000005 1661.5000000000002 1747.5000000000002 2658.5000000000005 1312.5000000000002 1189.5000000000002 133.50000000000003 1683.5000000000002 14.500000000000002 1726.5000000000002 1054.5000000000002 848.50000000000011 960.50000000000011 716.50000000000011 2558.5000000000005 1184.5000000000002 2514.5000000000005 500.50000000000006 1159.5000000000002 574.50000000000011
decision_type=2 2 2 2 2 2 2 2 2 2 2 2 2 2 2 2 2 2 2 2 2 2 2 2 2 2 2 2 2 2
left_child=1 6 8 4 11 10 13 -8 -2 12 22 -3 24 17 15 21 -6 -1 -16 -10 -15 -13 -4 26 -5 -14 27 28 -19 -30
right_child=2 3 5 9 16 -7 7 -9 19 -11 -12 14 25 20 18 -17 -18 23 -20 -21 -22 -23 -24 -25 -26 -27 -28 -29 29 -31
leaf_value=0.066160939502067306 0.17950390697404267 0.070824530182613268 0.17805461870100267 0.054184776132806117 0.23349873576331978 0.12354208626333746 0.23750198597939601 -0.08569608488998845 0.1794696834549975 0.23134481631108184 0.35565557111758728 -0.09805454790592194 -0.096987839472874274 0.21582266043785006 -0.10455220657472747 0.25195534763371813 -0.095356655313122665 -0.10974086767715795 -0.014900553830174119 -0.056665342661926126 -0.027535274534654982 0.0064733962403722319 0.27107650784807835 0.1676703971365224 0.12547407434982003 0.09381317068701206 -0.11826948084015663 0.26281775032601706 0.12810220352168811 -0.043888017879082614
leaf_weight=147 814 432 266 883 199 372 151 177 67 268 1127 275 267 43 1799 92 62 6752 506 254 723 732 2081 23 515 46 4651 123 118 260
leaf_count=147 814 432 266 883 199 372 151 177 67 268 1127 275 267 43 1799 92 62 6752 506 254 723 732 2081 23 515 46 4651 123 118 260
internal_value=0 -0.0624611 0.241317 0.00483197 -0.0301502 0.275157 -0.0935116 0.0630933 0.12665 0.0772533 0.291392 -0.0427736 0.0531175 -0.0975121 -0.0571903 0.000867532 0.15538 -0.102818 -0.0848716 -0.00737859 -0.0138742 -0.022072 0.260534 -0.104901 0.0804466 -0.0689468 -0.105428 -0.0971927 -0.103403 0.00980205
internal_weight=0 19244 4981 6076 4097 3846 13168 328 1135 1979 3474 3836 1711 12840 3404 1099 261 12074 2305 321 766 1007 2347 11927 1398 313 11904 7253 7130 378
internal_count=24225 19244 4981 6076 4097 3846 13168 328 1135 1979 3474 3836 1711 12840 3404 1099 261 12074 2305 321 766 1007 2347 11927 1398 313 11904 7253 7130 378
is_linear=0
shrinkage=0.1


Tree=6
num_leaves=31
num_cat=0
split_feature=30 2 33 33 19 24 0 38 24 19 33 29 5 5 38 24 33 30 14 38 36 36 11 8 34 0 0 33 0 12
split_gain=29602.6 3210.31 1876.03 1598.86 1333.75 883.298 760.833 728.844 646.611 565.821 545.969 478.989 468.937 428.45 293.078 267.751 2078.26 635.503 283.624 262.542 222.075 195.884 182.574 166.694 163.348 155.816 139.99 134.551 114.724 114.681
threshold=1862.5000000000002 1548.5000000000002 1173.5000000000002 1234.5000000000002 2712.5000000000005 2459.5000000000005 1611.5000000000002 828.50000000000011 2474.5000000000005 2844.5000000000005 1161.5000000000002 1176.5000000000002 1786.5000000000002 772.50000000000011 476.50000000000006 2492.5000000000005 1189.5000000000002 1164.5000000000002 46.500000000000007 791.50000000000011 1776.5000000000002 1646.5000000000002 28.500000000000004 1167.5000000000002 100.50000000000001 1293.5000000000002 867.50000000000011 1152.5000000000002 598.50000000000011 708.50000000000011
decision_type=2 2 2 2 2 2 2 2 2 2 2 2 2 2 2 2 2 2 2 2 2 2 2 2 2 2 2 2 2 2
left_child=1 3 5 4 7 -2 9 13 -5 21 11 -3 26 -1 -14 16 17 28 22 -7 -18 -4 27 -20 -12 -10 -6 -19 -15 -8
right_child=2 10 6 8 12 19 29 -9 25 -11 24 -13 14 15 -16 -17 20 18 23 -21 -22 -23 -24 -25 -26 -27 -28 -29 -30 -31
leaf_value=0.21236098522835589 0.16172954030462969 0.048443521767084892 0.1684475428022936 0.21565414141877859 0.0071466723943806503 -0.058682914830389482 0.32333719837665559 0.23437190549714226 -0.077988788191701339 0.31707571269284562 0.20222353015454289 -0.076335822415524099 0.10094407132721894 0.06650863687197367 0.42991294066111252 -0.10582902895597875 0.061000478769443478 0.080206688439723145 -0.04762939450657791 0.16205636427952694 0.24568358751916397 0.24595941467890664 -0.13032817159380233 0.16434329197956965 0.094370785325095213 0.16947078358742498 -0.069570846603242906 0.28350629855175408 -0.09925649350402807 0.10209718869135143
leaf_weight=47 873 1355 394 261 1056 315 25 70 142 1214 197 398 151 42 33 6183 98 97 761 65 194 1890 28 39 489 31 307 49 7048 373
leaf_count=47 873 1355 394 261 1056 315 25 70 142 1214 197 398 151 42 33 6183 98 97 761 65 194 1890 28 39 489 31 307 49 7048 373
internal_value=0 -0.0574316 0.212773 -0.0731388 -0.0782124 0.106336 0.247004 -0.0875337 0.116279 0.26191 0.0497108 0.0201137 0.0100959 -0.0890785 0.159944 -0.090053 -0.0783796 -0.0878696 -0.0121293 -0.0209249 0.183701 0.232588 0.103579 -0.0372957 0.125343 -0.0336463 -0.0101331 0.148437 -0.0982745 0.115994
internal_weight=0 19076 5149 16637 16203 1253 3896 14656 434 3498 2439 1753 1547 14586 184 14539 8356 8064 974 380 292 2284 174 800 686 173 1363 146 7090 398
internal_count=24225 19076 5149 16637 16203 1253 3896 14656 434 3498 2439 1753 1547 14586 184 14539 8356 8064 974 380 292 2284 174 800 686 173 1363 146 7090 398
is_linear=0
shrinkage=0.1


Tree=7
num_leaves=31
num_cat=0
split_feature=30 2 33 30 24 24 0 19 19 33 38 17 33 5 36 17 8 36 36 30 15 17 12 38 36 38 5 19 19 5
split_gain=23978.1 2612.12 1519.59 1438.74 2478.81 715.471 617.18 505.781 457.875 447.624 314.089 213.734 173.353 612.215 169.752 169.161 157.595 148.281 145.625 198.523 132.614 131.58 118.106 105.41 104.192 202.706 102.47 90.2586 90.1126 89.1509
threshold=1862.5000000000002 1629.5000000000002 1173.5000000000002 1429.5000000000002 2508.5000000000005 2459.5000000000005 1600.5000000000002 2600.5000000000005 2689.5000000000005 1186.5000000000002 696.50000000000011 1726.5000000000002 1219.5000000000002 1477.5000000000002 1671.5000000000002 1865.5000000000002 850.50000000000011 1696.5000000000002 1765.5000000000002 1530.5000000000002 725.50000000000011 2054.5000000000005 708.50000000000011 529.50000000000011 1616.5000000000002 424.50000000000006 1388.5000000000002 2768.5000000000005 2606.5000000000005 1793.5000000000002
decision_type=2 2 2 2 2 2 2 2 2 2 2 2 2 2 2 2 2 2 2 2 2 2 2 2 2 2 2 2 2 2
left_child=1 3 5 7 9 -2 8 12 14 16 21 -7 24 -14 20 18 -5 29 -6 -20 -4 27 -8 -11 25 -1 -16 -3 -25 -9
right_child=2 10 6 4 15 11 22 17 -10 23 -12 -13 13 -15 26 -17 -18 -19 19 -21 -22 -23 -24 28 -26 -27 -28 -29 -30 -31
leaf_value=0.10820677696894376 0.14555658379234673 0.041376936375370876 0.12452478910570092 4.4731884172149737e-05 -0.092183341455792156 0.14181270879857683 0.29319898861069837 -0.0073257686664603668 0.28537988652205043 0.098539815662063171 0.19506441893116122 -0.053844786750582553 0.20376742938731579 -0.086407390338980899 0.24196997200687456 -0.016754416624971468 0.10656819453004931 -0.066521962677327698 -0.069931649480547226 0.32501391768455506 0.22081481457687913 -0.13043103610597007 0.090102869812647507 0.19830834449259277 -0.088144195639869527 -0.070939832395054844 0.18828021616851748 0.10589454265560692 0.39798155923684442 0.173538604591574
leaf_weight=78 873 1482 354 255 1407 68 31 1022 1217 107 155 312 94 321 1168 466 305 552 35 20 240 41 375 388 11710 332 511 254 24 28
leaf_count=78 873 1482 354 255 1407 68 31 1022 1217 107 155 312 94 321 1168 466 305 552 35 20 240 41 375 388 11710 332 511 254 24 28
internal_value=0 -0.0516885 0.191495 -0.0641107 -0.00129803 0.095702 0.222304 -0.0774712 0.235879 0.120068 0.058543 -0.0188324 -0.0842332 -0.020681 0.209375 -0.0692204 0.058062 -0.0245618 -0.0859434 0.0736849 0.16343 0.0466349 0.10561 0.186973 -0.0864093 -0.0368583 0.22563 0.0508167 0.20994 -0.00250272
internal_weight=0 19076 5149 17144 3007 1253 3896 14137 3490 1079 1932 380 12535 415 2273 1928 560 1602 1462 55 594 1777 406 519 12120 410 1679 1736 412 1050
internal_count=24225 19076 5149 17144 3007 1253 3896 14137 3490 1079 1932 380 12535 415 2273 1928 560 1602 1462 55 594 1777 406 519 12120 410 1679 1736 412 1050
is_linear=0
shrinkage=0.1


Tree=8
num_leaves=31
num_cat=0
split_feature=30 35 33 8 33 0 38 33 24 21 36 19 21 33 19 26 36 17 9 19 5 30 5 38 0 0 17 19 36 5
split_gain=19436.3 2158.66 1023.75 856.531 533.406 503.725 464.074 428.792 456.299 408.961 362.812 348.317 343.85 376.445 326.135 276.153 234.4 233.101 167.513 131.928 129.921 125.603 117.043 113.608 112.163 110.851 101.836 93.9669 93.5826 120.191
threshold=1885.5000000000002 24.500000000000004 1189.5000000000002 1191.5000000000002 1237.5000000000002 1626.5000000000002 602.50000000000011 1223.5000000000002 2424.5000000000005 1509.5000000000002 1799.5000000000002 2844.5000000000005 1339.5000000000002 1191.5000000000002 2866.5000000000005 82.500000000000014 1736.5000000000002 1683.5000000000002 13.500000000000002 3274.5000000000005 1405.5000000000002 1184.5000000000002 822.50000000000011 716.50000000000011 938.50000000000011 598.50000000000011 1893.5000000000002 2539.5000000000005 1622.5000000000002 1334.5000000000002
decision_type=2 2 2 2 2 2 2 2 2 2 2 2 2 2 2 2 2 2 2 2 2 2 2 2 2 2 2 2 2 2
left_child=1 7 9 4 12 11 10 14 -9 19 27 24 13 16 17 -6 22 -1 -14 20 -2 -12 -3 25 -4 -19 -16 -5 -26 -30
right_child=2 3 5 6 15 -7 -8 8 -10 -11 21 -13 18 -15 26 -17 -18 23 -20 -21 -22 -23 -24 -25 28 -27 -28 -29 29 -31
leaf_value=0.051207178648637268 0.12974336704992234 0.16539506005204244 0.11405969408565556 0.039157806336879736 0.17216713347626691 0.092967743089700003 0.17599075157865346 0.17465739713327305 -0.062367783652411572 -0.030558882980811886 -0.078039011388918098 0.25858224267195046 -0.08168618961676094 0.18157245310667522 0.22443702868793325 -0.0710365502560725 -0.0815974550356654 0.040715020711039322 -0.021000345578004759 0.3418446293583623 0.012459326698666527 0.10467093046321425 0.0028166936693186499 0.14657449670459913 0.12401183730439297 -0.076656259363265283 0.0072698132596677838 0.091446416071240558 0.22221254459945172 0.16729219529677083
leaf_weight=147 940 46 174 908 199 376 278 148 180 205 301 1185 1331 107 23 61 373 81 691 27 105 43 1185 23 158 12213 353 553 1219 592
leaf_count=147 940 46 174 908 199 376 278 148 180 205 301 1185 1331 107 23 61 373 81 691 27 105 43 1185 23 158 12213 353 553 1219 592
internal_value=0 -0.0455707 0.176062 0.00373478 -0.0233832 0.202681 0.0557185 -0.0683213 0.0445826 0.0988506 0.0371946 0.215076 -0.033029 -3.60278e-05 -0.0712055 0.115108 -0.0121508 -0.0739735 -0.0609474 0.123598 0.117959 -0.0552003 0.00889192 -0.0754675 0.191019 -0.0758829 0.020554 0.0589495 0.19782 0.20426
internal_weight=0 19244 4981 6076 3993 3704 2083 13168 328 1277 1805 3328 3733 1711 12840 260 1604 12464 2022 1072 1045 344 1231 12317 2143 12294 376 1461 1969 1811
internal_count=24225 19244 4981 6076 3993 3704 2083 13168 328 1277 1805 3328 3733 1711 12840 260 1604 12464 2022 1072 1045 344 1231 12317 2143 12294 376 1461 1969 1811
is_linear=0
shrinkage=0.1


Tree=9
num_leaves=31
num_cat=0
split_feature=30 2 33 33 19 38 5 0 16 19 33 36 34 5 38 24 33 30 3 12 38 36 26 15 38 36 21 38 14 14
split_gain=15743.4 1765.49 950.644 834.471 752.17 465.898 470.292 408.081 361.811 304.015 298.841 293.172 285.064 273.968 214.299 188.917 1319.08 410.136 236.685 261.493 193.497 163.498 150.495 132.842 120.117 112.839 112.017 110.963 100.954 100.023
threshold=1885.5000000000002 1548.5000000000002 1234.5000000000002 1173.5000000000002 2712.5000000000005 828.50000000000011 801.50000000000011 1600.5000000000002 67.500000000000014 2689.5000000000005 1161.5000000000002 1824.5000000000002 130.50000000000003 1786.5000000000002 476.50000000000006 2492.5000000000005 1189.5000000000002 1164.5000000000002 33.500000000000007 574.50000000000011 538.50000000000011 1735.5000000000002 108.50000000000001 745.50000000000011 495.50000000000006 1646.5000000000002 1248.5000000000002 495.50000000000006 44.500000000000007 59.500000000000007
decision_type=2 2 2 2 2 2 2 2 2 2 2 2 2 2 2 2 2 2 2 2 2 2 2 2 2 2 2 2 2 2
left_child=1 2 4 8 5 6 -1 9 -2 25 11 -3 -4 -6 -15 16 17 27 19 21 -21 -19 24 -10 -18 -5 -13 -8 -12 -20
right_child=3 10 12 7 13 -7 15 -9 23 -11 28 26 -14 14 -16 -17 22 18 29 20 -22 -23 -24 -25 -26 -27 -28 -29 -30 -31
leaf_value=0.1557375941425562 0.11902832073887977 0.034573679588704213 0.14575711239717509 0.12014725161765619 -0.0063933365401056931 0.18500261481602986 -0.073155555054152527 0.085743121718182991 0.11538699764600942 0.23214966509328436 0.15271089333295823 0.076839509398438213 -0.022710673928260802 0.072121743167568961 0.34872075950398163 -0.079499373042982005 0.073383874222636231 0.095435286112702813 -0.083365039166107963 -0.019385979972505497 0.30105771720409397 0.3378127239252392 -0.068140213297946117 -0.03920715218409896 0.22015811269697935 0.18010630396894509 -0.09716515298159617 0.13381104859021994 0.06899739352172439 0.015254126216953734
leaf_weight=96 808 1447 304 378 1373 75 7064 405 71 1213 200 43 150 159 34 6232 80 104 332 326 20 38 28 256 184 1850 265 26 515 149
leaf_count=96 808 1447 304 378 1373 75 7064 405 71 1213 200 43 150 159 34 6232 80 104 332 326 20 38 28 256 184 1850 265 26 515 149
internal_value=0 -0.0410136 -0.0526365 0.158455 -0.0566072 -0.0636014 -0.0648716 0.180691 0.0831104 0.191866 0.0379187 0.0157171 0.0900959 0.00928851 0.120849 -0.0663239 -0.0564915 -0.0640567 -0.00303493 0.0460317 -0.000863223 0.160297 0.152301 -0.00564084 0.175681 0.169934 -0.0728723 -0.0723966 0.0924138 -0.0528157
internal_weight=0 19244 16774 4981 16320 14754 14679 3846 1135 3441 2470 1755 454 1566 193 14583 8351 8059 969 488 346 142 292 327 264 2228 308 7090 715 481
internal_count=24225 19244 16774 4981 16320 14754 14679 3846 1135 3441 2470 1755 454 1566 193 14583 8351 8059 969 488 346 142 292 327 264 2228 308 7090 715 481
is_linear=0
shrinkage=0.1


end of trees

feature_importances:
Column_38=38
Column_33=37
Column_30=31
Column_19=25
Column_5=24
Column_36=24
Column_0=20
Column_24=20
Column_12=10
Column_17=10
Column_2=9
Column_8=8
Column_15=8
Column_21=5
Column_34=5
Column_26=4
Column_14=3
Column_16=3
Column_35=3
Column_6=2
Column_9=2
Column_10=2
Column_29=2
Column_3=1
Column_4=1
Column_11=1
Column_13=1
Column_27=1

parameters:
[boosting: gbdt]
[objective: regression]
[metric: l2]
[tree_learner: serial]
[device_type: cpu]
[data: ]
[valid: ]
[num_iterations: 10]
[learning_rate: 0.1]
[num_leaves: 31]
[num_threads: 0]
[deterministic: 0]
[force_col_wise: 0]
[force_row_wise: 0]
[histogram_pool_size: -1]
[max_depth: -1]
[min_data_in_leaf: 20]
[min_sum_hessian_in_leaf: 0.001]
[bagging_fraction: 1]
[pos_bagging_fraction: 1]
[neg_bagging_fraction: 1]
[bagging_freq: 0]
[bagging_seed: 3]
[feature_fraction: 1]
[feature_fraction_bynode: 1]
[feature_fraction_seed: 2]
[extra_trees: 0]
[extra_seed: 6]
[early_stopping_round: 0]
[first_metric_only: 0]
[max_delta_step: 0]
[lambda_l1: 0]
[lambda_l2: 0]
[linear_lambda: 0]
[min_gain_to_split: 0]
[drop_rate: 0.1]
[max_drop: 50]
[skip_drop: 0.5]
[xgboost_dart_mode: 0]
[uniform_drop: 0]
[drop_seed: 4]
[top_rate: 0.2]
[other_rate: 0.1]
[min_data_per_group: 100]
[max_cat_threshold: 32]
[cat_l2: 10]
[cat_smooth: 10]
[max_cat_to_onehot: 4]
[top_k: 20]
[monotone_constraints: ]
[monotone_constraints_method: basic]
[monotone_penalty: 0]
[feature_contri: ]
[forcedsplits_filename: ]
[refit_decay_rate: 0.9]
[cegb_tradeoff: 1]
[cegb_penalty_split: 0]
[cegb_penalty_feature_lazy: ]
[cegb_penalty_feature_coupled: ]
[path_smooth: 0]
[interaction_constraints: ]
[verbosity: -1]
[saved_feature_importance_type: 0]
[linear_tree: 0]
[max_bin: 255]
[max_bin_by_feature: ]
[min_data_in_bin: 3]
[bin_construct_sample_cnt: 200000]
[data_random_seed: 1]
[is_enable_sparse: 1]
[enable_bundle: 1]
[use_missing: 1]
[zero_as_missing: 0]
[feature_pre_filter: 1]
[pre_partition: 0]
[two_round: 0]
[header: 0]
[label_column: ]
[weight_column: ]
[group_column: ]
[ignore_column: ]
[categorical_feature: ]
[forcedbins_filename: ]
[precise_float_parser: 0]
[objective_seed: 5]
[num_class: 1]
[is_unbalance: 0]
[scale_pos_weight: 1]
[sigmoid: 1]
[boost_from_average: 1]
[reg_sqrt: 0]
[alpha: 0.9]
[fair_c: 1]
[poisson_max_delta_step: 0.7]
[tweedie_variance_power: 1.5]
[lambdarank_truncation_level: 30]
[lambdarank_norm: 1]
[label_gain: ]
[eval_at: ]
[multi_error_top_k: 1]
[auc_mu_weights: ]
[num_machines: 1]
[local_listen_port: 12400]
[time_out: 120]
[machine_list_filename: ]
[machines: ]
[gpu_platform_id: -1]
[gpu_device_id: -1]
[gpu_use_dp: 0]
[num_gpu: 1]

end of parameters

pandas_categorical:null
